<?xml version="1.0"?>
<opencv_storage>
<cascade>
  <stageType>BOOST</stageType>
  <featureType>HAAR</featureType>
  <height>30</height>
  <width>50</width>
  <stageParams>
    <boostType>GAB</boostType>
    <minHitRate>9.9900001287460327e-01</minHitRate>
    <maxFalseAlarm>5.0000000000000000e-01</maxFalseAlarm>
    <weightTrimRate>9.4999999999999996e-01</weightTrimRate>
    <maxDepth>1</maxDepth>
    <maxWeakCount>100</maxWeakCount></stageParams>
  <featureParams>
    <maxCatCount>0</maxCatCount>
    <featSize>1</featSize>
    <mode>ALL</mode></featureParams>
  <stageNum>14</stageNum>
  <stages>
    <!-- stage 0 -->
    <_>
      <maxWeakCount>3</maxWeakCount>
      <stageThreshold>-1.3357070684432983e+00</stageThreshold>
      <weakClassifiers>
        <_>
          <internalNodes>
            0 -1 67 2.5757248513400555e-03</internalNodes>
          <leafValues>
            -8.8752198219299316e-01 6.1702126264572144e-01</leafValues></_>
        <_>
          <internalNodes>
            0 -1 19 -1.9525926327332854e-03</internalNodes>
          <leafValues>
            5.8795839548110962e-01 -9.4608902931213379e-01</leafValues></_>
        <_>
          <internalNodes>
            0 -1 24 -3.4588944166898727e-02</internalNodes>
          <leafValues>
            4.9790391325950623e-01 -9.2649424076080322e-01</leafValues></_></weakClassifiers></_>
    <!-- stage 1 -->
    <_>
      <maxWeakCount>3</maxWeakCount>
      <stageThreshold>-1.0641870498657227e+00</stageThreshold>
      <weakClassifiers>
        <_>
          <internalNodes>
            0 -1 62 -1.8785092979669571e-02</internalNodes>
          <leafValues>
            6.5248227119445801e-01 -7.8896105289459229e-01</leafValues></_>
        <_>
          <internalNodes>
            0 -1 5 -7.9699354246258736e-03</internalNodes>
          <leafValues>
            5.8678787946701050e-01 -7.8406375646591187e-01</leafValues></_>
        <_>
          <internalNodes>
            0 -1 6 -2.0821215584874153e-02</internalNodes>
          <leafValues>
            5.0883769989013672e-01 -7.9995095729827881e-01</leafValues></_></weakClassifiers></_>
    <!-- stage 2 -->
    <_>
      <maxWeakCount>3</maxWeakCount>
      <stageThreshold>-8.5131472349166870e-01</stageThreshold>
      <weakClassifiers>
        <_>
          <internalNodes>
            0 -1 58 -4.3228319846093655e-03</internalNodes>
          <leafValues>
            4.3250688910484314e-01 -8.5794395208358765e-01</leafValues></_>
        <_>
          <internalNodes>
            0 -1 45 -2.7170961257070303e-03</internalNodes>
          <leafValues>
            6.6339892148971558e-01 -7.2344887256622314e-01</leafValues></_>
        <_>
          <internalNodes>
            0 -1 15 -8.1940898671746254e-03</internalNodes>
          <leafValues>
            7.5107610225677490e-01 -5.6037271022796631e-01</leafValues></_></weakClassifiers></_>
    <!-- stage 3 -->
    <_>
      <maxWeakCount>4</maxWeakCount>
      <stageThreshold>-4.4109392166137695e-01</stageThreshold>
      <weakClassifiers>
        <_>
          <internalNodes>
            0 -1 13 -3.9160335436463356e-03</internalNodes>
          <leafValues>
            1. -6.1073827743530273e-01</leafValues></_>
        <_>
          <internalNodes>
            0 -1 61 1.7852544260676950e-04</internalNodes>
          <leafValues>
            -9.0493518114089966e-01 4.7305935621261597e-01</leafValues></_>
        <_>
          <internalNodes>
            0 -1 47 2.3477599024772644e-03</internalNodes>
          <leafValues>
            -9.2813706398010254e-01 4.4938254356384277e-01</leafValues></_>
        <_>
          <internalNodes>
            0 -1 40 8.6200470104813576e-04</internalNodes>
          <leafValues>
            -6.6178435087203979e-01 6.2519693374633789e-01</leafValues></_></weakClassifiers></_>
    <!-- stage 4 -->
    <_>
      <maxWeakCount>4</maxWeakCount>
      <stageThreshold>-6.1826390027999878e-01</stageThreshold>
      <weakClassifiers>
        <_>
          <internalNodes>
            0 -1 63 -5.7226009666919708e-03</internalNodes>
          <leafValues>
            4.9837133288383484e-01 -7.6988154649734497e-01</leafValues></_>
        <_>
          <internalNodes>
            0 -1 14 -7.3453411459922791e-03</internalNodes>
          <leafValues>
            7.7751648426055908e-01 -5.6801813840866089e-01</leafValues></_>
        <_>
          <internalNodes>
            0 -1 31 -2.0611514337360859e-03</internalNodes>
          <leafValues>
            3.7778434157371521e-01 -9.9160081148147583e-01</leafValues></_>
        <_>
          <internalNodes>
            0 -1 19 -1.9762436859309673e-03</internalNodes>
          <leafValues>
            3.4185144305229187e-01 -8.9379161596298218e-01</leafValues></_></weakClassifiers></_>
    <!-- stage 5 -->
    <_>
      <maxWeakCount>5</maxWeakCount>
      <stageThreshold>-1.0362378358840942e+00</stageThreshold>
      <weakClassifiers>
        <_>
          <internalNodes>
            0 -1 64 -2.3924806155264378e-03</internalNodes>
          <leafValues>
            4.9006623029708862e-01 -7.5503355264663696e-01</leafValues></_>
        <_>
          <internalNodes>
            0 -1 29 -8.8094808161258698e-03</internalNodes>
          <leafValues>
            6.7917251586914063e-01 -4.9928233027458191e-01</leafValues></_>
        <_>
          <internalNodes>
            0 -1 1 -7.1187666617333889e-03</internalNodes>
          <leafValues>
            4.0855517983436584e-01 -7.6649349927902222e-01</leafValues></_>
        <_>
          <internalNodes>
            0 -1 17 1.6227486776188016e-04</internalNodes>
          <leafValues>
            -5.9836041927337646e-01 4.9789884686470032e-01</leafValues></_>
        <_>
          <internalNodes>
            0 -1 41 -3.0320152640342712e-02</internalNodes>
          <leafValues>
            4.8667263984680176e-01 -6.5917164087295532e-01</leafValues></_></weakClassifiers></_>
    <!-- stage 6 -->
    <_>
      <maxWeakCount>3</maxWeakCount>
      <stageThreshold>-6.6012841463088989e-01</stageThreshold>
      <weakClassifiers>
        <_>
          <internalNodes>
            0 -1 38 -8.1542078405618668e-03</internalNodes>
          <leafValues>
            7.4444442987442017e-01 -6.0724234580993652e-01</leafValues></_>
        <_>
          <internalNodes>
            0 -1 59 -1.6811478417366743e-03</internalNodes>
          <leafValues>
            4.2109525203704834e-01 -7.1099466085433960e-01</leafValues></_>
        <_>
          <internalNodes>
            0 -1 7 7.0670254528522491e-02</internalNodes>
          <leafValues>
            -4.7398132085800171e-01 8.1122750043869019e-01</leafValues></_></weakClassifiers></_>
    <!-- stage 7 -->
    <_>
      <maxWeakCount>6</maxWeakCount>
      <stageThreshold>-1.6663815975189209e+00</stageThreshold>
      <weakClassifiers>
        <_>
          <internalNodes>
            0 -1 0 -6.3281543552875519e-03</internalNodes>
          <leafValues>
            4.2953020334243774e-01 -7.1666663885116577e-01</leafValues></_>
        <_>
          <internalNodes>
            0 -1 57 -8.4445513784885406e-03</internalNodes>
          <leafValues>
            5.5313879251480103e-01 -6.1241835355758667e-01</leafValues></_>
        <_>
          <internalNodes>
            0 -1 8 -3.5165347158908844e-02</internalNodes>
          <leafValues>
            3.5144373774528503e-01 -8.5117077827453613e-01</leafValues></_>
        <_>
          <internalNodes>
            0 -1 43 2.1178894676268101e-03</internalNodes>
          <leafValues>
            -5.3795546293258667e-01 5.4640316963195801e-01</leafValues></_>
        <_>
          <internalNodes>
            0 -1 65 1.6020725015550852e-03</internalNodes>
          <leafValues>
            -5.2720755338668823e-01 5.7283246517181396e-01</leafValues></_>
        <_>
          <internalNodes>
            0 -1 30 -1.0396190191386268e-05</internalNodes>
          <leafValues>
            4.3082529306411743e-01 -6.7087858915328979e-01</leafValues></_></weakClassifiers></_>
    <!-- stage 8 -->
    <_>
      <maxWeakCount>5</maxWeakCount>
      <stageThreshold>-1.0201047658920288e+00</stageThreshold>
      <weakClassifiers>
        <_>
          <internalNodes>
            0 -1 22 1.1975850211456418e-03</internalNodes>
          <leafValues>
            -7.2681283950805664e-01 4.2295083403587341e-01</leafValues></_>
        <_>
          <internalNodes>
            0 -1 60 -2.4629116524010897e-03</internalNodes>
          <leafValues>
            8.1517738103866577e-01 -4.1413652896881104e-01</leafValues></_>
        <_>
          <internalNodes>
            0 -1 25 -1.2804462015628815e-01</internalNodes>
          <leafValues>
            -9.4096100330352783e-01 3.3463165163993835e-01</leafValues></_>
        <_>
          <internalNodes>
            0 -1 32 -2.9498408548533916e-04</internalNodes>
          <leafValues>
            5.7955294847488403e-01 -5.0210839509963989e-01</leafValues></_>
        <_>
          <internalNodes>
            0 -1 37 -1.7667343490757048e-04</internalNodes>
          <leafValues>
            3.2834905385971069e-01 -9.4099253416061401e-01</leafValues></_></weakClassifiers></_>
    <!-- stage 9 -->
    <_>
      <maxWeakCount>6</maxWeakCount>
      <stageThreshold>-1.4883227348327637e+00</stageThreshold>
      <weakClassifiers>
        <_>
          <internalNodes>
            0 -1 2 -1.6547602415084839e-01</internalNodes>
          <leafValues>
            2.4804177880287170e-01 -7.7087378501892090e-01</leafValues></_>
        <_>
          <internalNodes>
            0 -1 18 -3.5603349097073078e-03</internalNodes>
          <leafValues>
            3.6779135465621948e-01 -6.9308936595916748e-01</leafValues></_>
        <_>
          <internalNodes>
            0 -1 66 2.1283496171236038e-03</internalNodes>
          <leafValues>
            -8.0753600597381592e-01 3.0567154288291931e-01</leafValues></_>
        <_>
          <internalNodes>
            0 -1 42 7.2052255272865295e-03</internalNodes>
          <leafValues>
            -3.3336839079856873e-01 8.4823018312454224e-01</leafValues></_>
        <_>
          <internalNodes>
            0 -1 26 -3.4869526280090213e-04</internalNodes>
          <leafValues>
            7.6178598403930664e-01 -3.3523797988891602e-01</leafValues></_>
        <_>
          <internalNodes>
            0 -1 35 8.7179793044924736e-03</internalNodes>
          <leafValues>
            3.3857521414756775e-01 -9.4789177179336548e-01</leafValues></_></weakClassifiers></_>
    <!-- stage 10 -->
    <_>
      <maxWeakCount>6</maxWeakCount>
      <stageThreshold>-1.1173120737075806e+00</stageThreshold>
      <weakClassifiers>
        <_>
          <internalNodes>
            0 -1 46 -5.3519951179623604e-03</internalNodes>
          <leafValues>
            6.9999998807907104e-01 -5.9610027074813843e-01</leafValues></_>
        <_>
          <internalNodes>
            0 -1 20 -6.0623520985245705e-03</internalNodes>
          <leafValues>
            3.4318506717681885e-01 -8.3175277709960938e-01</leafValues></_>
        <_>
          <internalNodes>
            0 -1 9 7.7492825221270323e-04</internalNodes>
          <leafValues>
            -6.0800927877426147e-01 4.4277265667915344e-01</leafValues></_>
        <_>
          <internalNodes>
            0 -1 3 1.1386966798454523e-03</internalNodes>
          <leafValues>
            -5.3704214096069336e-01 4.2113083600997925e-01</leafValues></_>
        <_>
          <internalNodes>
            0 -1 11 4.1358638554811478e-04</internalNodes>
          <leafValues>
            2.7171540260314941e-01 -9.7150319814682007e-01</leafValues></_>
        <_>
          <internalNodes>
            0 -1 50 -2.2359155991580337e-04</internalNodes>
          <leafValues>
            -8.3066725730895996e-01 2.2570402920246124e-01</leafValues></_></weakClassifiers></_>
    <!-- stage 11 -->
    <_>
      <maxWeakCount>6</maxWeakCount>
      <stageThreshold>-1.3588228225708008e+00</stageThreshold>
      <weakClassifiers>
        <_>
          <internalNodes>
            0 -1 55 -4.0019969455897808e-03</internalNodes>
          <leafValues>
            2.7472528815269470e-01 -7.5280898809432983e-01</leafValues></_>
        <_>
          <internalNodes>
            0 -1 27 -1.1053818743675947e-03</internalNodes>
          <leafValues>
            6.0531795024871826e-01 -5.2065813541412354e-01</leafValues></_>
        <_>
          <internalNodes>
            0 -1 28 -4.2896859347820282e-02</internalNodes>
          <leafValues>
            3.0021211504936218e-01 -8.0692380666732788e-01</leafValues></_>
        <_>
          <internalNodes>
            0 -1 48 -5.3027481772005558e-04</internalNodes>
          <leafValues>
            7.0034611225128174e-01 -3.7981712818145752e-01</leafValues></_>
        <_>
          <internalNodes>
            0 -1 4 -8.9955329895019531e-03</internalNodes>
          <leafValues>
            6.8776309490203857e-01 -3.0315697193145752e-01</leafValues></_>
        <_>
          <internalNodes>
            0 -1 54 -1.3491240679286420e-04</internalNodes>
          <leafValues>
            3.7700787186622620e-01 -6.4155679941177368e-01</leafValues></_></weakClassifiers></_>
    <!-- stage 12 -->
    <_>
      <maxWeakCount>8</maxWeakCount>
      <stageThreshold>-1.7999851703643799e+00</stageThreshold>
      <weakClassifiers>
        <_>
          <internalNodes>
            0 -1 36 -5.6208134628832340e-03</internalNodes>
          <leafValues>
            1.5420560538768768e-01 -7.8297871351242065e-01</leafValues></_>
        <_>
          <internalNodes>
            0 -1 16 -2.5695716030895710e-03</internalNodes>
          <leafValues>
            3.9411675930023193e-01 -5.2099782228469849e-01</leafValues></_>
        <_>
          <internalNodes>
            0 -1 53 -7.1413803379982710e-04</internalNodes>
          <leafValues>
            5.6136125326156616e-01 -4.1099581122398376e-01</leafValues></_>
        <_>
          <internalNodes>
            0 -1 21 -3.1241920078173280e-04</internalNodes>
          <leafValues>
            3.1924071907997131e-01 -6.9784712791442871e-01</leafValues></_>
        <_>
          <internalNodes>
            0 -1 33 -3.8584606954827905e-05</internalNodes>
          <leafValues>
            3.6036115884780884e-01 -6.2022936344146729e-01</leafValues></_>
        <_>
          <internalNodes>
            0 -1 56 9.3471469881478697e-05</internalNodes>
          <leafValues>
            -8.2986932992935181e-01 2.6622226834297180e-01</leafValues></_>
        <_>
          <internalNodes>
            0 -1 51 -3.6859972169622779e-04</internalNodes>
          <leafValues>
            6.6334009170532227e-01 -3.7028890848159790e-01</leafValues></_>
        <_>
          <internalNodes>
            0 -1 34 -1.1737138265743852e-03</internalNodes>
          <leafValues>
            -8.7487858533859253e-01 3.2004249095916748e-01</leafValues></_></weakClassifiers></_>
    <!-- stage 13 -->
    <_>
      <maxWeakCount>7</maxWeakCount>
      <stageThreshold>-1.1406015157699585e+00</stageThreshold>
      <weakClassifiers>
        <_>
          <internalNodes>
            0 -1 12 6.2433190643787384e-02</internalNodes>
          <leafValues>
            -5.8540147542953491e-01 4.6478873491287231e-01</leafValues></_>
        <_>
          <internalNodes>
            0 -1 52 -2.3465558886528015e-02</internalNodes>
          <leafValues>
            6.0037863254547119e-01 -4.5827117562294006e-01</leafValues></_>
        <_>
          <internalNodes>
            0 -1 44 3.2077856303658336e-05</internalNodes>
          <leafValues>
            -8.0156928300857544e-01 2.5308212637901306e-01</leafValues></_>
        <_>
          <internalNodes>
            0 -1 39 -1.5884656459093094e-02</internalNodes>
          <leafValues>
            -7.1215754747390747e-01 3.3052921295166016e-01</leafValues></_>
        <_>
          <internalNodes>
            0 -1 49 -1.8640619236975908e-03</internalNodes>
          <leafValues>
            6.1084622144699097e-01 -3.7169149518013000e-01</leafValues></_>
        <_>
          <internalNodes>
            0 -1 10 -5.6176375597715378e-02</internalNodes>
          <leafValues>
            3.0474728345870972e-01 -8.1498634815216064e-01</leafValues></_>
        <_>
          <internalNodes>
            0 -1 23 1.0553062020335346e-04</internalNodes>
          <leafValues>
            -4.7434523701667786e-01 5.0613766908645630e-01</leafValues></_></weakClassifiers></_></stages>
  <features>
    <_>
      <rects>
        <_>
          0 0 4 22 -1.</_>
        <_>
          0 0 2 11 2.</_>
        <_>
          2 11 2 11 2.</_></rects>
      <tilted>0</tilted></_>
    <_>
      <rects>
        <_>
          0 1 24 11 -1.</_>
        <_>
          8 1 8 11 3.</_></rects>
      <tilted>0</tilted></_>
    <_>
      <rects>
        <_>
          0 1 45 12 -1.</_>
        <_>
          15 5 15 4 9.</_></rects>
      <tilted>0</tilted></_>
    <_>
      <rects>
        <_>
          0 6 2 15 -1.</_>
        <_>
          0 11 2 5 3.</_></rects>
      <tilted>0</tilted></_>
    <_>
      <rects>
        <_>
          0 15 6 9 -1.</_>
        <_>
          2 15 2 9 3.</_></rects>
      <tilted>0</tilted></_>
    <_>
      <rects>
        <_>
          1 9 9 10 -1.</_>
        <_>
          1 14 9 5 2.</_></rects>
      <tilted>0</tilted></_>
    <_>
      <rects>
        <_>
          1 18 28 12 -1.</_>
        <_>
          1 18 14 6 2.</_>
        <_>
          15 24 14 6 2.</_></rects>
      <tilted>0</tilted></_>
    <_>
      <rects>
        <_>
          2 0 12 30 -1.</_>
        <_>
          2 0 6 15 2.</_>
        <_>
          8 15 6 15 2.</_></rects>
      <tilted>0</tilted></_>
    <_>
      <rects>
        <_>
          2 1 47 24 -1.</_>
        <_>
          2 13 47 12 2.</_></rects>
      <tilted>0</tilted></_>
    <_>
      <rects>
        <_>
          2 18 8 4 -1.</_>
        <_>
          2 18 4 2 2.</_>
        <_>
          6 20 4 2 2.</_></rects>
      <tilted>0</tilted></_>
    <_>
      <rects>
        <_>
          2 24 48 6 -1.</_>
        <_>
          18 26 16 2 9.</_></rects>
      <tilted>0</tilted></_>
    <_>
      <rects>
        <_>
          2 29 20 1 -1.</_>
        <_>
          12 29 10 1 2.</_></rects>
      <tilted>0</tilted></_>
    <_>
      <rects>
        <_>
          3 0 10 26 -1.</_>
        <_>
          3 0 5 13 2.</_>
        <_>
          8 13 5 13 2.</_></rects>
      <tilted>0</tilted></_>
    <_>
      <rects>
        <_>
          3 10 1 8 -1.</_>
        <_>
          3 14 1 4 2.</_></rects>
      <tilted>0</tilted></_>
    <_>
      <rects>
        <_>
          3 10 1 20 -1.</_>
        <_>
          3 15 1 10 2.</_></rects>
      <tilted>0</tilted></_>
    <_>
      <rects>
        <_>
          3 19 8 3 -1.</_>
        <_>
          5 21 4 3 2.</_></rects>
      <tilted>1</tilted></_>
    <_>
      <rects>
        <_>
          4 22 1 4 -1.</_>
        <_>
          4 22 1 2 2.</_></rects>
      <tilted>1</tilted></_>
    <_>
      <rects>
        <_>
          5 28 2 2 -1.</_>
        <_>
          5 29 2 1 2.</_></rects>
      <tilted>0</tilted></_>
    <_>
      <rects>
        <_>
          6 14 11 9 -1.</_>
        <_>
          6 17 11 3 3.</_></rects>
      <tilted>0</tilted></_>
    <_>
      <rects>
        <_>
          6 23 1 6 -1.</_>
        <_>
          6 23 1 3 2.</_></rects>
      <tilted>1</tilted></_>
    <_>
      <rects>
        <_>
          7 1 12 28 -1.</_>
        <_>
          7 8 12 14 2.</_></rects>
      <tilted>0</tilted></_>
    <_>
      <rects>
        <_>
          7 16 6 2 -1.</_>
        <_>
          7 16 3 2 2.</_></rects>
      <tilted>1</tilted></_>
    <_>
      <rects>
        <_>
          7 16 9 4 -1.</_>
        <_>
          6 17 9 2 2.</_></rects>
      <tilted>1</tilted></_>
    <_>
      <rects>
        <_>
          7 28 1 2 -1.</_>
        <_>
          7 29 1 1 2.</_></rects>
      <tilted>0</tilted></_>
    <_>
      <rects>
        <_>
          8 24 33 6 -1.</_>
        <_>
          19 26 11 2 9.</_></rects>
      <tilted>0</tilted></_>
    <_>
      <rects>
        <_>
          9 0 31 30 -1.</_>
        <_>
          9 15 31 15 2.</_></rects>
      <tilted>0</tilted></_>
    <_>
      <rects>
        <_>
          9 8 3 1 -1.</_>
        <_>
          10 8 1 1 3.</_></rects>
      <tilted>0</tilted></_>
    <_>
      <rects>
        <_>
          10 2 6 4 -1.</_>
        <_>
          10 2 3 2 2.</_>
        <_>
          13 4 3 2 2.</_></rects>
      <tilted>0</tilted></_>
    <_>
      <rects>
        <_>
          11 0 39 18 -1.</_>
        <_>
          24 6 13 6 9.</_></rects>
      <tilted>0</tilted></_>
    <_>
      <rects>
        <_>
          11 0 36 4 -1.</_>
        <_>
          11 0 18 2 2.</_>
        <_>
          29 2 18 2 2.</_></rects>
      <tilted>0</tilted></_>
    <_>
      <rects>
        <_>
          11 26 2 2 -1.</_>
        <_>
          12 26 1 2 2.</_></rects>
      <tilted>0</tilted></_>
    <_>
      <rects>
        <_>
          12 26 24 4 -1.</_>
        <_>
          18 26 12 4 2.</_></rects>
      <tilted>0</tilted></_>
    <_>
      <rects>
        <_>
          18 3 4 4 -1.</_>
        <_>
          18 3 2 2 2.</_>
        <_>
          20 5 2 2 2.</_></rects>
      <tilted>0</tilted></_>
    <_>
      <rects>
        <_>
          19 7 8 2 -1.</_>
        <_>
          23 7 4 2 2.</_></rects>
      <tilted>0</tilted></_>
    <_>
      <rects>
        <_>
          19 28 9 2 -1.</_>
        <_>
          22 28 3 2 3.</_></rects>
      <tilted>0</tilted></_>
    <_>
      <rects>
        <_>
          20 8 11 20 -1.</_>
        <_>
          20 18 11 10 2.</_></rects>
      <tilted>0</tilted></_>
    <_>
      <rects>
        <_>
          20 8 26 6 -1.</_>
        <_>
          20 8 13 3 2.</_>
        <_>
          33 11 13 3 2.</_></rects>
      <tilted>0</tilted></_>
    <_>
      <rects>
        <_>
          22 22 4 8 -1.</_>
        <_>
          22 24 4 4 2.</_></rects>
      <tilted>0</tilted></_>
    <_>
      <rects>
        <_>
          23 0 21 4 -1.</_>
        <_>
          23 1 21 2 2.</_></rects>
      <tilted>0</tilted></_>
    <_>
      <rects>
        <_>
          25 3 18 3 -1.</_>
        <_>
          25 3 9 3 2.</_></rects>
      <tilted>1</tilted></_>
    <_>
      <rects>
        <_>
          25 21 22 3 -1.</_>
        <_>
          25 22 22 1 3.</_></rects>
      <tilted>0</tilted></_>
    <_>
      <rects>
        <_>
          26 0 18 24 -1.</_>
        <_>
          32 8 6 8 9.</_></rects>
      <tilted>0</tilted></_>
    <_>
      <rects>
        <_>
          26 7 19 4 -1.</_>
        <_>
          25 8 19 2 2.</_></rects>
      <tilted>1</tilted></_>
    <_>
      <rects>
        <_>
          26 21 16 3 -1.</_>
        <_>
          26 22 16 1 3.</_></rects>
      <tilted>0</tilted></_>
    <_>
      <rects>
        <_>
          27 18 6 6 -1.</_>
        <_>
          27 18 6 3 2.</_></rects>
      <tilted>1</tilted></_>
    <_>
      <rects>
        <_>
          30 10 14 6 -1.</_>
        <_>
          30 10 7 3 2.</_>
        <_>
          37 13 7 3 2.</_></rects>
      <tilted>0</tilted></_>
    <_>
      <rects>
        <_>
          31 0 14 2 -1.</_>
        <_>
          31 1 14 1 2.</_></rects>
      <tilted>0</tilted></_>
    <_>
      <rects>
        <_>
          31 9 12 21 -1.</_>
        <_>
          37 9 6 21 2.</_></rects>
      <tilted>0</tilted></_>
    <_>
      <rects>
        <_>
          37 2 2 8 -1.</_>
        <_>
          38 2 1 8 2.</_></rects>
      <tilted>0</tilted></_>
    <_>
      <rects>
        <_>
          38 4 3 9 -1.</_>
        <_>
          39 4 1 9 3.</_></rects>
      <tilted>0</tilted></_>
    <_>
      <rects>
        <_>
          38 9 12 2 -1.</_>
        <_>
          38 9 6 2 2.</_></rects>
      <tilted>1</tilted></_>
    <_>
      <rects>
        <_>
          39 10 3 1 -1.</_>
        <_>
          40 10 1 1 3.</_></rects>
      <tilted>0</tilted></_>
    <_>
      <rects>
        <_>
          40 9 10 16 -1.</_>
        <_>
          40 9 5 8 2.</_>
        <_>
          45 17 5 8 2.</_></rects>
      <tilted>0</tilted></_>
    <_>
      <rects>
        <_>
          40 17 1 6 -1.</_>
        <_>
          40 19 1 2 3.</_></rects>
      <tilted>0</tilted></_>
    <_>
      <rects>
        <_>
          40 18 4 10 -1.</_>
        <_>
          42 18 2 10 2.</_></rects>
      <tilted>0</tilted></_>
    <_>
      <rects>
        <_>
          43 13 6 12 -1.</_>
        <_>
          43 13 3 6 2.</_>
        <_>
          46 19 3 6 2.</_></rects>
      <tilted>0</tilted></_>
    <_>
      <rects>
        <_>
          43 28 6 2 -1.</_>
        <_>
          43 29 6 1 2.</_></rects>
      <tilted>0</tilted></_>
    <_>
      <rects>
        <_>
          44 12 5 12 -1.</_>
        <_>
          44 16 5 4 3.</_></rects>
      <tilted>0</tilted></_>
    <_>
      <rects>
        <_>
          44 18 6 12 -1.</_>
        <_>
          46 18 2 12 3.</_></rects>
      <tilted>0</tilted></_>
    <_>
      <rects>
        <_>
          44 22 6 2 -1.</_>
        <_>
          46 24 2 2 3.</_></rects>
      <tilted>1</tilted></_>
    <_>
      <rects>
        <_>
          45 9 3 6 -1.</_>
        <_>
          46 10 1 6 3.</_></rects>
      <tilted>1</tilted></_>
    <_>
      <rects>
        <_>
          46 28 4 1 -1.</_>
        <_>
          48 28 2 1 2.</_></rects>
      <tilted>0</tilted></_>
    <_>
      <rects>
        <_>
          47 12 3 18 -1.</_>
        <_>
          48 18 1 6 9.</_></rects>
      <tilted>0</tilted></_>
    <_>
      <rects>
        <_>
          47 13 2 16 -1.</_>
        <_>
          47 17 2 8 2.</_></rects>
      <tilted>0</tilted></_>
    <_>
      <rects>
        <_>
          47 17 3 11 -1.</_>
        <_>
          48 17 1 11 3.</_></rects>
      <tilted>0</tilted></_>
    <_>
      <rects>
        <_>
          48 13 2 7 -1.</_>
        <_>
          49 13 1 7 2.</_></rects>
      <tilted>0</tilted></_>
    <_>
      <rects>
        <_>
          48 15 2 15 -1.</_>
        <_>
          49 15 1 15 2.</_></rects>
      <tilted>0</tilted></_>
    <_>
      <rects>
        <_>
          48 16 2 14 -1.</_>
        <_>
          49 16 1 14 2.</_></rects>
      <tilted>0</tilted></_></features></cascade>
</opencv_storage>
