<?xml version="1.0"?>
<opencv_storage>
<cascade>
  <stageType>BOOST</stageType>
  <featureType>LBP</featureType>
  <height>30</height>
  <width>50</width>
  <stageParams>
    <boostType>GAB</boostType>
    <minHitRate>9.9900001287460327e-01</minHitRate>
    <maxFalseAlarm>5.0000000000000000e-01</maxFalseAlarm>
    <weightTrimRate>9.4999999999999996e-01</weightTrimRate>
    <maxDepth>1</maxDepth>
    <maxWeakCount>100</maxWeakCount></stageParams>
  <featureParams>
    <maxCatCount>256</maxCatCount>
    <featSize>1</featSize></featureParams>
  <stageNum>20</stageNum>
  <stages>
    <!-- stage 0 -->
    <_>
      <maxWeakCount>3</maxWeakCount>
      <stageThreshold>-1.0131099224090576e+00</stageThreshold>
      <weakClassifiers>
        <_>
          <internalNodes>
            0 -1 9 -648818177 -619397096 16891927 -50266101 -595350630
            -1107263488 -1992292053 -81032689</internalNodes>
          <leafValues>
            -8.7561374902725220e-01 8.1184667348861694e-01</leafValues></_>
        <_>
          <internalNodes>
            0 -1 31 -115608609 -619359216 268468437 -883879807
            -1877765697 -1912569338 -1593786213 -1039824753</internalNodes>
          <leafValues>
            -8.4412181377410889e-01 7.7631056308746338e-01</leafValues></_>
        <_>
          <internalNodes>
            0 -1 47 -939278114 -979435493 1363214679 285278220
            -402003796 -1165459320 -1475835752 -808746869</internalNodes>
          <leafValues>
            -9.0117180347442627e-01 7.0662569999694824e-01</leafValues></_></weakClassifiers></_>
    <!-- stage 1 -->
    <_>
      <maxWeakCount>3</maxWeakCount>
      <stageThreshold>-8.1109690666198730e-01</stageThreshold>
      <weakClassifiers>
        <_>
          <internalNodes>
            0 -1 8 -654052965 -619610111 82179 -754251771 -1736398677
            -654278520 -2130574549 -1423466353</internalNodes>
          <leafValues>
            -8.5089141130447388e-01 7.9359430074691772e-01</leafValues></_>
        <_>
          <internalNodes>
            0 -1 11 4304 -788463599 4117 -1862205423 136 -1971255296
            16779418 -75497463</internalNodes>
          <leafValues>
            -8.0231720209121704e-01 8.5381650924682617e-01</leafValues></_>
        <_>
          <internalNodes>
            0 -1 37 -3211265 -2125889 -34091009 -2765002 -4865
            -1157636865 -570429702 -717290</internalNodes>
          <leafValues>
            -8.0237400531768799e-01 8.5801643133163452e-01</leafValues></_></weakClassifiers></_>
    <!-- stage 2 -->
    <_>
      <maxWeakCount>2</maxWeakCount>
      <stageThreshold>-1.6749034821987152e-01</stageThreshold>
      <weakClassifiers>
        <_>
          <internalNodes>
            0 -1 28 -1055656961 -721403902 -2147483469 -1795157999
            -1987516373 -1467973631 589890 -911539997</internalNodes>
          <leafValues>
            -8.5483872890472412e-01 8.2014387845993042e-01</leafValues></_>
        <_>
          <internalNodes>
            0 -1 50 -1072119680 -788529152 285212825 1728118800
            -2147188534 -1205698560 557483 -637091815</internalNodes>
          <leafValues>
            -9.2275041341781616e-01 6.8734836578369141e-01</leafValues></_></weakClassifiers></_>
    <!-- stage 3 -->
    <_>
      <maxWeakCount>3</maxWeakCount>
      <stageThreshold>-9.5363032817840576e-01</stageThreshold>
      <weakClassifiers>
        <_>
          <internalNodes>
            0 -1 46 -16777249 -16781313 -33554433 -520106513 -470060050
            1677457407 1995960062 -1430261761</internalNodes>
          <leafValues>
            -8.5466033220291138e-01 9.0188682079315186e-01</leafValues></_>
        <_>
          <internalNodes>
            0 -1 18 1879071825 290455552 1094713428 218103828 532651
            285769864 -1740619389 -1163224951</internalNodes>
          <leafValues>
            -9.2024278640747070e-01 8.1782191991806030e-01</leafValues></_>
        <_>
          <internalNodes>
            0 -1 34 -251309825 1114129 16875539 1145049093 805339264
            -2071461760 -1719664488 -605306629</internalNodes>
          <leafValues>
            -8.8095015287399292e-01 8.2127285003662109e-01</leafValues></_></weakClassifiers></_>
    <!-- stage 4 -->
    <_>
      <maxWeakCount>3</maxWeakCount>
      <stageThreshold>-1.1362456083297729e+00</stageThreshold>
      <weakClassifiers>
        <_>
          <internalNodes>
            0 -1 3 -804790785 -149848063 -1878944673 -16445357
            -2012571046 -803012608 -1198946101 -5785465</internalNodes>
          <leafValues>
            -8.8481676578521729e-01 6.3076925277709961e-01</leafValues></_>
        <_>
          <internalNodes>
            0 -1 43 -740568595 832033105 17186835 13864982 -1702786168
            -2130575360 -939474888 -302003461</internalNodes>
          <leafValues>
            -9.1460877656936646e-01 5.8474707603454590e-01</leafValues></_>
        <_>
          <internalNodes>
            0 -1 24 419550033 -1726217965 1157693779 520163665
            1216428707 -1198948344 168495803 -1144053717</internalNodes>
          <leafValues>
            -8.3617591857910156e-01 6.8436646461486816e-01</leafValues></_></weakClassifiers></_>
    <!-- stage 5 -->
    <_>
      <maxWeakCount>3</maxWeakCount>
      <stageThreshold>-1.1126394271850586e+00</stageThreshold>
      <weakClassifiers>
        <_>
          <internalNodes>
            0 -1 54 -78920193 2031583248 29 16891984 -905863025
            -939261824 -2143108917 1087357407</internalNodes>
          <leafValues>
            -9.1023337841033936e-01 6.0117304325103760e-01</leafValues></_>
        <_>
          <internalNodes>
            0 -1 0 -787746309 -237285182 4211091 -620658671 -2146787595
            -117374848 -938956175 -147335082</internalNodes>
          <leafValues>
            -8.7611019611358643e-01 6.9220405817031860e-01</leafValues></_>
        <_>
          <internalNodes>
            0 -1 26 -620637457 -24919925 8411263 -213806989 -89405565
            -1073510328 -1442789149 -418938741</internalNodes>
          <leafValues>
            -8.7836861610412598e-01 6.7370414733886719e-01</leafValues></_></weakClassifiers></_>
    <!-- stage 6 -->
    <_>
      <maxWeakCount>3</maxWeakCount>
      <stageThreshold>-1.0946344137191772e+00</stageThreshold>
      <weakClassifiers>
        <_>
          <internalNodes>
            0 -1 54 -242753829 1562083345 39053 1426145280 -1877245558
            -2013265920 1744883914 1221577355</internalNodes>
          <leafValues>
            -8.8049209117889404e-01 6.0486322641372681e-01</leafValues></_>
        <_>
          <internalNodes>
            0 -1 13 -941901925 -720138095 1164405 -720256876 -1021115510
            -929513302 -2013052021 1594343835</internalNodes>
          <leafValues>
            -8.2959473133087158e-01 6.6882067918777466e-01</leafValues></_>
        <_>
          <internalNodes>
            0 -1 51 -790647816 1532690436 1090588885 1360072704
            -888420214 -1476198392 -804547889 -249583013</internalNodes>
          <leafValues>
            -8.6990284919738770e-01 6.6835212707519531e-01</leafValues></_></weakClassifiers></_>
    <!-- stage 7 -->
    <_>
      <maxWeakCount>3</maxWeakCount>
      <stageThreshold>-1.1272777318954468e+00</stageThreshold>
      <weakClassifiers>
        <_>
          <internalNodes>
            0 -1 4 1360474559 1396916231 16781715 -580943599 285933859
            -1434320728 -2004671741 -7361637</internalNodes>
          <leafValues>
            -9.3090212345123291e-01 4.8541113734245300e-01</leafValues></_>
        <_>
          <internalNodes>
            0 -1 12 1355010271 -783216493 16855099 -719519605
            -1300123097 -356214647 268599371 -1064133</internalNodes>
          <leafValues>
            -8.1981313228607178e-01 6.6053503751754761e-01</leafValues></_>
        <_>
          <internalNodes>
            0 -1 29 -246359696 -179187689 290456031 -578695151
            -1307266882 -124022751 -1979653957 -1085996510</internalNodes>
          <leafValues>
            -7.9287570714950562e-01 6.7107731103897095e-01</leafValues></_></weakClassifiers></_>
    <!-- stage 8 -->
    <_>
      <maxWeakCount>3</maxWeakCount>
      <stageThreshold>-1.0184880495071411e+00</stageThreshold>
      <weakClassifiers>
        <_>
          <internalNodes>
            0 -1 44 855897535 -754636269 -2105535033 294912100
            -2129944389 -1693906559 -444536405 -543768181</internalNodes>
          <leafValues>
            -8.0487805604934692e-01 6.8197882175445557e-01</leafValues></_>
        <_>
          <internalNodes>
            0 -1 49 -602014840 1997078801 84476765 -686993381
            -1602123589 -1333260280 -1040004952 -1177575415</internalNodes>
          <leafValues>
            -8.5649174451828003e-01 6.7600184679031372e-01</leafValues></_>
        <_>
          <internalNodes>
            0 -1 17 -788230872 -1610252253 -1593786209 1980072721
            -2121560833 -2139062140 -2108700517 -1008743445</internalNodes>
          <leafValues>
            -8.4397506713867188e-01 6.7091304063796997e-01</leafValues></_></weakClassifiers></_>
    <!-- stage 9 -->
    <_>
      <maxWeakCount>3</maxWeakCount>
      <stageThreshold>-1.0281764268875122e+00</stageThreshold>
      <weakClassifiers>
        <_>
          <internalNodes>
            0 -1 32 -789847549 -788447215 318800223 -245940141
            -1073577833 -249986902 -1035149105 -342891877</internalNodes>
          <leafValues>
            -8.2935154438018799e-01 5.8974361419677734e-01</leafValues></_>
        <_>
          <internalNodes>
            0 -1 56 -1876569857 205717505 16865305 1527890195 231594
            436209792 -1744729893 -1618231141</internalNodes>
          <leafValues>
            -8.2098889350891113e-01 6.5345627069473267e-01</leafValues></_>
        <_>
          <internalNodes>
            0 -1 30 -442899458 -745488368 -2013233071 -619659200
            -1593278326 -1735753592 -2146924086 -48283634</internalNodes>
          <leafValues>
            -7.9693114757537842e-01 7.2944235801696777e-01</leafValues></_></weakClassifiers></_>
    <!-- stage 10 -->
    <_>
      <maxWeakCount>3</maxWeakCount>
      <stageThreshold>-1.2043795585632324e+00</stageThreshold>
      <weakClassifiers>
        <_>
          <internalNodes>
            0 -1 39 1963449303 1120313857 -2063495147 2102698007
            -1677188373 -267417088 -2130673509 -1019159729</internalNodes>
          <leafValues>
            -9.2523366212844849e-01 5.3168046474456787e-01</leafValues></_>
        <_>
          <internalNodes>
            0 -1 6 -7089153 -878435970 -770518027 -740322759 -1412204841
            -1325236216 -1069418485 -150538063</internalNodes>
          <leafValues>
            -8.3924818038940430e-01 6.1723387241363525e-01</leafValues></_>
        <_>
          <internalNodes>
            0 -1 35 -1050419723 -669872000 -989773547 1600980235
            -394204693 -91684854 288063935 13347731</internalNodes>
          <leafValues>
            -8.9637976884841919e-01 5.6908828020095825e-01</leafValues></_></weakClassifiers></_>
    <!-- stage 11 -->
    <_>
      <maxWeakCount>3</maxWeakCount>
      <stageThreshold>-8.7954163551330566e-01</stageThreshold>
      <weakClassifiers>
        <_>
          <internalNodes>
            0 -1 14 -745285377 -678325993 83906715 -1257795583
            -2013224312 -108232695 -1069512502 -911308549</internalNodes>
          <leafValues>
            -7.8205126523971558e-01 6.7883211374282837e-01</leafValues></_>
        <_>
          <internalNodes>
            0 -1 27 -136722779 2118131914 536870935 -14219120 680102331
            -1516795757 -894778741 -8148517</internalNodes>
          <leafValues>
            -8.4004968404769897e-01 6.2440782785415649e-01</leafValues></_>
        <_>
          <internalNodes>
            0 -1 5 -673448001 -804683751 1350582547 487260563 1116588043
            42139648 -985476977 -1046502701</internalNodes>
          <leafValues>
            -7.1832406520843506e-01 7.9087144136428833e-01</leafValues></_></weakClassifiers></_>
    <!-- stage 12 -->
    <_>
      <maxWeakCount>3</maxWeakCount>
      <stageThreshold>-1.0768647193908691e+00</stageThreshold>
      <weakClassifiers>
        <_>
          <internalNodes>
            0 -1 22 -175399457 -778207093 388315173 -174260088
            1195606195 -743907191 998742451 -2112885</internalNodes>
          <leafValues>
            -8.8928574323654175e-01 5.7988166809082031e-01</leafValues></_>
        <_>
          <internalNodes>
            0 -1 40 -217321003 -463805309 -1043722111 -192909056
            -905461527 -536296128 -1463237940 -538984277</internalNodes>
          <leafValues>
            -7.9846030473709106e-01 6.1324560642242432e-01</leafValues></_>
        <_>
          <internalNodes>
            0 -1 23 -641008169 -778272555 605045855 1893581971
            -1601503794 -1442733943 -394141015 -1209323520</internalNodes>
          <leafValues>
            -8.0082458257675171e-01 6.4683037996292114e-01</leafValues></_></weakClassifiers></_>
    <!-- stage 13 -->
    <_>
      <maxWeakCount>3</maxWeakCount>
      <stageThreshold>-1.0854723453521729e+00</stageThreshold>
      <weakClassifiers>
        <_>
          <internalNodes>
            0 -1 20 -603950891 461393937 16849375 2140211201 -2013263224
            -91684728 -2004874517 -83228541</internalNodes>
          <leafValues>
            -7.9967159032821655e-01 6.4013838768005371e-01</leafValues></_>
        <_>
          <internalNodes>
            0 -1 7 -246154959 -652622975 268435953 -553053935
            -2137996545 -2002714198 -854914949 -14736621</internalNodes>
          <leafValues>
            -8.2204681634902954e-01 6.4588356018066406e-01</leafValues></_>
        <_>
          <internalNodes>
            0 -1 53 -741880865 -788283381 1090535769 205971713
            -905731409 128 -939406965 684583323</internalNodes>
          <leafValues>
            -9.0356397628784180e-01 5.8161848783493042e-01</leafValues></_></weakClassifiers></_>
    <!-- stage 14 -->
    <_>
      <maxWeakCount>3</maxWeakCount>
      <stageThreshold>-1.0981262922286987e+00</stageThreshold>
      <weakClassifiers>
        <_>
          <internalNodes>
            0 -1 16 -111157285 -83241832 1048605 -779382723 -859078001
            -880279552 -1061059921 -947154993</internalNodes>
          <leafValues>
            -7.7707004547119141e-01 6.8888890743255615e-01</leafValues></_>
        <_>
          <internalNodes>
            0 -1 36 164631025 501022736 -1862250019 -1751576559 8390857
            2047344776 25222075 1070301323</internalNodes>
          <leafValues>
            -9.1169017553329468e-01 5.4152637720108032e-01</leafValues></_>
        <_>
          <internalNodes>
            0 -1 48 -37498401 -545218296 65631 693150608 -536311617
            -671088343 55157167 1670772623</internalNodes>
          <leafValues>
            -8.5122740268707275e-01 5.9063392877578735e-01</leafValues></_></weakClassifiers></_>
    <!-- stage 15 -->
    <_>
      <maxWeakCount>3</maxWeakCount>
      <stageThreshold>-1.0397340059280396e+00</stageThreshold>
      <weakClassifiers>
        <_>
          <internalNodes>
            0 -1 41 -795095849 -611856221 -1878522789 -785022900
            -1195146532 -108427136 -1450999061 -6563417</internalNodes>
          <leafValues>
            -7.7883094549179077e-01 7.2075474262237549e-01</leafValues></_>
        <_>
          <internalNodes>
            0 -1 10 -946701534 -112611008 -1996371493 -183668663
            1099148223 1795915913 -519837105 -266102</internalNodes>
          <leafValues>
            -8.9780503511428833e-01 5.6840938329696655e-01</leafValues></_>
        <_>
          <internalNodes>
            0 -1 52 -950410017 -615915385 4 -788396543 -1056324949
            -1979678718 -1073241445 1397866795</internalNodes>
          <leafValues>
            -8.2931238412857056e-01 6.9555389881134033e-01</leafValues></_></weakClassifiers></_>
    <!-- stage 16 -->
    <_>
      <maxWeakCount>3</maxWeakCount>
      <stageThreshold>-1.0446752309799194e+00</stageThreshold>
      <weakClassifiers>
        <_>
          <internalNodes>
            0 -1 45 -996481797 -150515297 1090619611 -540573299
            -1868855048 -1149106176 -224224597 -275805233</internalNodes>
          <leafValues>
            -8.3103448152542114e-01 5.6603771448135376e-01</leafValues></_>
        <_>
          <internalNodes>
            0 -1 21 269550576 1439236305 16879837 -149864419 -2004350792
            -1182138342 -2113371942 -100007469</internalNodes>
          <leafValues>
            -7.7822804450988770e-01 6.1262452602386475e-01</leafValues></_>
        <_>
          <internalNodes>
            0 -1 25 1979048943 -1085621279 -1407061541 -111099897
            142123123 -1412790143 1208566091 -1152415741</internalNodes>
          <leafValues>
            -8.2626527547836304e-01 5.9766960144042969e-01</leafValues></_></weakClassifiers></_>
    <!-- stage 17 -->
    <_>
      <maxWeakCount>3</maxWeakCount>
      <stageThreshold>-1.2172368764877319e+00</stageThreshold>
      <weakClassifiers>
        <_>
          <internalNodes>
            0 -1 1 -643836929 -205008873 611541 -786837235 -936457907
            -2132623165 2013991519 2136937783</internalNodes>
          <leafValues>
            -9.3047034740447998e-01 3.7408313155174255e-01</leafValues></_>
        <_>
          <internalNodes>
            0 -1 55 -73935905 855875609 16777289 -654192573 138793099
            998277250 -930905937 147572955</internalNodes>
          <leafValues>
            -8.6408114433288574e-01 4.9100139737129211e-01</leafValues></_>
        <_>
          <internalNodes>
            0 -1 42 -582485153 1271232001 1633861718 352944135
            -367029859 -1577025003 1259192460 -544366193</internalNodes>
          <leafValues>
            -7.7776789665222168e-01 6.4895379543304443e-01</leafValues></_></weakClassifiers></_>
    <!-- stage 18 -->
    <_>
      <maxWeakCount>3</maxWeakCount>
      <stageThreshold>-1.0037939548492432e+00</stageThreshold>
      <weakClassifiers>
        <_>
          <internalNodes>
            0 -1 2 83940575 -1726414703 83957023 1560608915 -2013092425
            -124641104 -1610085893 -1987379193</internalNodes>
          <leafValues>
            -7.5157231092453003e-01 6.7175573110580444e-01</leafValues></_>
        <_>
          <internalNodes>
            0 -1 15 -2632001 -247234554 17596639 -1875257850 -125073269
            1279508480 -2012540725 -1621425253</internalNodes>
          <leafValues>
            -7.7968078851699829e-01 6.6417723894119263e-01</leafValues></_>
        <_>
          <internalNodes>
            0 -1 38 -866194177 115278887 -1828580241 -259120977
            1033428220 -1634201965 1640018136 -1143823462</internalNodes>
          <leafValues>
            -8.9586889743804932e-01 5.9396928548812866e-01</leafValues></_></weakClassifiers></_>
    <!-- stage 19 -->
    <_>
      <maxWeakCount>2</maxWeakCount>
      <stageThreshold>-5.0159716606140137e-01</stageThreshold>
      <weakClassifiers>
        <_>
          <internalNodes>
            0 -1 19 -585369953 -216808733 -499015521 -1072316374
            -913267984 -267157374 134722274 327500427</internalNodes>
          <leafValues>
            -9.3495935201644897e-01 3.8916257023811340e-01</leafValues></_>
        <_>
          <internalNodes>
            0 -1 33 -325475405 -250799913 -1475850081 -57523178
            -2147168477 -1550810968 -2138339169 -745045049</internalNodes>
          <leafValues>
            -8.9075976610183716e-01 5.3481256961822510e-01</leafValues></_></weakClassifiers></_></stages>
  <features>
    <_>
      <rect>
        0 0 7 4</rect></_>
    <_>
      <rect>
        0 0 8 10</rect></_>
    <_>
      <rect>
        0 0 11 2</rect></_>
    <_>
      <rect>
        0 6 15 4</rect></_>
    <_>
      <rect>
        0 24 2 2</rect></_>
    <_>
      <rect>
        1 9 3 6</rect></_>
    <_>
      <rect>
        1 11 9 6</rect></_>
    <_>
      <rect>
        1 21 10 3</rect></_>
    <_>
      <rect>
        2 9 7 7</rect></_>
    <_>
      <rect>
        2 11 9 6</rect></_>
    <_>
      <rect>
        2 17 7 4</rect></_>
    <_>
      <rect>
        2 20 13 1</rect></_>
    <_>
      <rect>
        3 4 9 3</rect></_>
    <_>
      <rect>
        3 5 5 8</rect></_>
    <_>
      <rect>
        3 11 6 3</rect></_>
    <_>
      <rect>
        4 3 5 9</rect></_>
    <_>
      <rect>
        4 8 4 7</rect></_>
    <_>
      <rect>
        4 16 3 3</rect></_>
    <_>
      <rect>
        4 16 14 3</rect></_>
    <_>
      <rect>
        5 0 7 8</rect></_>
    <_>
      <rect>
        5 19 7 1</rect></_>
    <_>
      <rect>
        5 20 10 1</rect></_>
    <_>
      <rect>
        6 16 12 4</rect></_>
    <_>
      <rect>
        7 0 7 4</rect></_>
    <_>
      <rect>
        7 17 7 2</rect></_>
    <_>
      <rect>
        8 14 6 4</rect></_>
    <_>
      <rect>
        9 2 12 6</rect></_>
    <_>
      <rect>
        10 6 11 4</rect></_>
    <_>
      <rect>
        10 12 6 5</rect></_>
    <_>
      <rect>
        10 19 6 2</rect></_>
    <_>
      <rect>
        11 2 5 3</rect></_>
    <_>
      <rect>
        13 1 10 6</rect></_>
    <_>
      <rect>
        14 5 5 3</rect></_>
    <_>
      <rect>
        14 5 6 4</rect></_>
    <_>
      <rect>
        15 16 9 4</rect></_>
    <_>
      <rect>
        16 0 10 4</rect></_>
    <_>
      <rect>
        16 27 7 1</rect></_>
    <_>
      <rect>
        17 0 3 5</rect></_>
    <_>
      <rect>
        17 17 11 4</rect></_>
    <_>
      <rect>
        18 3 9 6</rect></_>
    <_>
      <rect>
        18 13 6 5</rect></_>
    <_>
      <rect>
        19 17 10 4</rect></_>
    <_>
      <rect>
        20 11 5 6</rect></_>
    <_>
      <rect>
        21 12 6 6</rect></_>
    <_>
      <rect>
        22 4 9 5</rect></_>
    <_>
      <rect>
        22 15 9 5</rect></_>
    <_>
      <rect>
        23 0 9 4</rect></_>
    <_>
      <rect>
        24 14 8 5</rect></_>
    <_>
      <rect>
        25 2 6 5</rect></_>
    <_>
      <rect>
        31 20 6 2</rect></_>
    <_>
      <rect>
        32 20 4 2</rect></_>
    <_>
      <rect>
        33 11 5 6</rect></_>
    <_>
      <rect>
        40 1 3 9</rect></_>
    <_>
      <rect>
        44 9 2 7</rect></_>
    <_>
      <rect>
        44 12 2 6</rect></_>
    <_>
      <rect>
        44 21 2 3</rect></_>
    <_>
      <rect>
        44 27 2 1</rect></_></features></cascade>
</opencv_storage>
