<?xml version="1.0"?>
<opencv_storage>
<cascade>
  <stageType>BOOST</stageType>
  <featureType>LBP</featureType>
  <height>30</height>
  <width>50</width>
  <stageParams>
    <boostType>GAB</boostType>
    <minHitRate>9.9900001287460327e-01</minHitRate>
    <maxFalseAlarm>5.0000000000000000e-01</maxFalseAlarm>
    <weightTrimRate>9.4999999999999996e-01</weightTrimRate>
    <maxDepth>1</maxDepth>
    <maxWeakCount>100</maxWeakCount></stageParams>
  <featureParams>
    <maxCatCount>256</maxCatCount>
    <featSize>1</featSize></featureParams>
  <stageNum>20</stageNum>
  <stages>
    <!-- stage 0 -->
    <_>
      <maxWeakCount>3</maxWeakCount>
      <stageThreshold>-1.0131099224090576e+00</stageThreshold>
      <weakClassifiers>
        <_>
          <internalNodes>
            0 -1 7 -648818177 -619397096 16891927 -50266101 -595350630
            -1107263488 -1992292053 -81032689</internalNodes>
          <leafValues>
            -8.7561374902725220e-01 8.1184667348861694e-01</leafValues></_>
        <_>
          <internalNodes>
            0 -1 32 -115608609 -619359216 268468437 -883879807
            -1877765697 -1912569338 -1593786213 -1039824753</internalNodes>
          <leafValues>
            -8.4412181377410889e-01 7.7631056308746338e-01</leafValues></_>
        <_>
          <internalNodes>
            0 -1 46 -939278114 -979435493 1363214679 285278220
            -402003796 -1165459320 -1475835752 -808746869</internalNodes>
          <leafValues>
            -9.0117180347442627e-01 7.0662569999694824e-01</leafValues></_></weakClassifiers></_>
    <!-- stage 1 -->
    <_>
      <maxWeakCount>3</maxWeakCount>
      <stageThreshold>-7.5969558954238892e-01</stageThreshold>
      <weakClassifiers>
        <_>
          <internalNodes>
            0 -1 6 -9961541 -262337 -9175117 -65 -537935957 -16056401
            -146325717 -1146110033</internalNodes>
          <leafValues>
            -8.2499998807907104e-01 8.7596899271011353e-01</leafValues></_>
        <_>
          <internalNodes>
            0 -1 19 33554576 -788529149 16407 318832657 167774344
            -1962868608 65690 -880408567</internalNodes>
          <leafValues>
            -7.9767721891403198e-01 8.7095707654953003e-01</leafValues></_>
        <_>
          <internalNodes>
            0 -1 37 -125112069 -217350009 1090519123 1359069186
            -1995800359 -2147417984 180362 -7927290</internalNodes>
          <leafValues>
            -7.7994346618652344e-01 8.6298161745071411e-01</leafValues></_></weakClassifiers></_>
    <!-- stage 2 -->
    <_>
      <maxWeakCount>3</maxWeakCount>
      <stageThreshold>-8.9579075574874878e-01</stageThreshold>
      <weakClassifiers>
        <_>
          <internalNodes>
            0 -1 22 -192554413 67108865 -1052716907 352387077
            -1591705458 -2013232984 1352665099 -1417531365</internalNodes>
          <leafValues>
            -8.5806453227996826e-01 8.2733815908432007e-01</leafValues></_>
        <_>
          <internalNodes>
            0 -1 42 -2088576295 -1757327349 285212689 81929 -922680696
            -2145386488 -1065320448 -351551317</internalNodes>
          <leafValues>
            -8.7054502964019775e-01 7.9399073123931885e-01</leafValues></_>
        <_>
          <internalNodes>
            0 -1 17 -637404449 318836771 8388870 285249552 1879605431
            -754974719 1350598867 -1953791461</internalNodes>
          <leafValues>
            -8.3171695470809937e-01 8.4335678815841675e-01</leafValues></_></weakClassifiers></_>
    <!-- stage 3 -->
    <_>
      <maxWeakCount>3</maxWeakCount>
      <stageThreshold>-8.5970056056976318e-01</stageThreshold>
      <weakClassifiers>
        <_>
          <internalNodes>
            0 -1 12 -1 -1 -285278209 -2289537 -723518124 -167772170
            8953182 -807565298</internalNodes>
          <leafValues>
            -8.5419970750808716e-01 8.8764047622680664e-01</leafValues></_>
        <_>
          <internalNodes>
            0 -1 15 -805060453 -1056881661 540677 -804585471 -668956469
            -2130706432 -1040154418 -922550133</internalNodes>
          <leafValues>
            -7.7011984586715698e-01 9.7124546766281128e-01</leafValues></_>
        <_>
          <internalNodes>
            0 -1 3 1342247066 1476460544 285212953 -721223680 514
            109215744 19 -74743605</internalNodes>
          <leafValues>
            -9.1753196716308594e-01 7.6461893320083618e-01</leafValues></_></weakClassifiers></_>
    <!-- stage 4 -->
    <_>
      <maxWeakCount>3</maxWeakCount>
      <stageThreshold>-1.1103048324584961e+00</stageThreshold>
      <weakClassifiers>
        <_>
          <internalNodes>
            0 -1 23 -721186561 -783187751 423690293 1436127248 574669459
            -1279754103 1216645283 -145265</internalNodes>
          <leafValues>
            -8.7478262186050415e-01 6.2229102849960327e-01</leafValues></_>
        <_>
          <internalNodes>
            0 -1 56 -1610100009 33619973 -2147418029 -855310327
            -1602051941 -1056899071 -2113306421 -1416654705</internalNodes>
          <leafValues>
            -8.5976499319076538e-01 6.4836412668228149e-01</leafValues></_>
        <_>
          <internalNodes>
            0 -1 0 -754197509 -644628413 1090637939 1397571605
            -1073050989 -1744797680 -1928821951 -1287155631</internalNodes>
          <leafValues>
            -8.7283086776733398e-01 7.1159297227859497e-01</leafValues></_></weakClassifiers></_>
    <!-- stage 5 -->
    <_>
      <maxWeakCount>3</maxWeakCount>
      <stageThreshold>-9.8345232009887695e-01</stageThreshold>
      <weakClassifiers>
        <_>
          <internalNodes>
            0 -1 43 -540016641 -686292994 -1 1442119663 -536870917
            -545259521 -147587073 -539492353</internalNodes>
          <leafValues>
            -7.7238237857818604e-01 8.6610877513885498e-01</leafValues></_>
        <_>
          <internalNodes>
            0 -1 44 -9446403 1431933441 180248 1690689537 -913667960
            -853999616 8452120 -606348034</internalNodes>
          <leafValues>
            -8.5971385240554810e-01 7.0013099908828735e-01</leafValues></_>
        <_>
          <internalNodes>
            0 -1 10 -715785424 -104382442 -1878978471 -50261999
            -1434293829 -1152876390 1074882683 -619773677</internalNodes>
          <leafValues>
            -9.1120088100433350e-01 6.6078346967697144e-01</leafValues></_></weakClassifiers></_>
    <!-- stage 6 -->
    <_>
      <maxWeakCount>3</maxWeakCount>
      <stageThreshold>-1.0577502250671387e+00</stageThreshold>
      <weakClassifiers>
        <_>
          <internalNodes>
            0 -1 5 -619593505 -585662399 268505309 -553021039
            -1441797093 -1340931581 -2013099861 -72103261</internalNodes>
          <leafValues>
            -8.8481676578521729e-01 6.3076925277709961e-01</leafValues></_>
        <_>
          <internalNodes>
            0 -1 51 -242754597 -804433920 1090519258 -801095593
            -2012618583 -805273464 -2130585429 -778712881</internalNodes>
          <leafValues>
            -7.9114007949829102e-01 7.4627822637557983e-01</leafValues></_>
        <_>
          <internalNodes>
            0 -1 49 -203955538 -216858624 1074876821 289472512
            -519384165 -631242624 -268199221 -347362805</internalNodes>
          <leafValues>
            -8.9737939834594727e-01 6.6396903991699219e-01</leafValues></_></weakClassifiers></_>
    <!-- stage 7 -->
    <_>
      <maxWeakCount>3</maxWeakCount>
      <stageThreshold>-1.1942772865295410e+00</stageThreshold>
      <weakClassifiers>
        <_>
          <internalNodes>
            0 -1 54 -740305953 1896939649 16787 1170587648 -1056718709
            -1073659896 -1073627061 1221579147</internalNodes>
          <leafValues>
            -8.9925372600555420e-01 4.9723756313323975e-01</leafValues></_>
        <_>
          <internalNodes>
            0 -1 21 -801091115 2106867728 285217113 1560608785
            -939523848 -73400192 1207962522 -16248181</internalNodes>
          <leafValues>
            -7.3720902204513550e-01 8.1518876552581787e-01</leafValues></_>
        <_>
          <internalNodes>
            0 -1 1 -686851329 -544800634 -2046753635 -671416225
            -1198946145 -889083750 -671050421 1427345535</internalNodes>
          <leafValues>
            -9.5430588722229004e-01 6.0282963514328003e-01</leafValues></_></weakClassifiers></_>
    <!-- stage 8 -->
    <_>
      <maxWeakCount>3</maxWeakCount>
      <stageThreshold>-1.0262459516525269e+00</stageThreshold>
      <weakClassifiers>
        <_>
          <internalNodes>
            0 -1 11 -1849588241 -743372787 -518946685 -35061759
            -295007794 -2004369405 -1205237509 -41184865</internalNodes>
          <leafValues>
            -7.7812498807907104e-01 7.5968992710113525e-01</leafValues></_>
        <_>
          <internalNodes>
            0 -1 18 -666851808 -886980156 -2003746793 -104759167
            -1333624641 -653777789 -343170641 -605044081</internalNodes>
          <leafValues>
            -8.8023120164871216e-01 6.3756918907165527e-01</leafValues></_>
        <_>
          <internalNodes>
            0 -1 28 72716459 -503315184 16843103 -594435823 8966363
            -131000927 -1868002913 -1551775605</internalNodes>
          <leafValues>
            -8.8569015264511108e-01 6.6141521930694580e-01</leafValues></_></weakClassifiers></_>
    <!-- stage 9 -->
    <_>
      <maxWeakCount>3</maxWeakCount>
      <stageThreshold>-1.1513868570327759e+00</stageThreshold>
      <weakClassifiers>
        <_>
          <internalNodes>
            0 -1 36 -700071422 -716734458 286277713 -783171447
            -893155166 -394092416 -670971173 -538984293</internalNodes>
          <leafValues>
            -8.5788559913635254e-01 6.0124611854553223e-01</leafValues></_>
        <_>
          <internalNodes>
            0 -1 41 -1073692452 -565110671 285262099 -720072549
            -2010924870 -1132330856 -1476164933 -1446049660</internalNodes>
          <leafValues>
            -8.6569637060165405e-01 5.7969641685485840e-01</leafValues></_>
        <_>
          <internalNodes>
            0 -1 13 -740690021 -171851757 24601 1963360914 508810
            -1073544432 -2146647317 21987515</internalNodes>
          <leafValues>
            -8.7319761514663696e-01 6.3219946622848511e-01</leafValues></_></weakClassifiers></_>
    <!-- stage 10 -->
    <_>
      <maxWeakCount>3</maxWeakCount>
      <stageThreshold>-1.0474313497543335e+00</stageThreshold>
      <weakClassifiers>
        <_>
          <internalNodes>
            0 -1 39 5497567 -548175740 1107395033 -720273269 1611171976
            -359661432 -2093366562 -15744887</internalNodes>
          <leafValues>
            -8.6963981389999390e-01 6.5079367160797119e-01</leafValues></_>
        <_>
          <internalNodes>
            0 -1 25 -1055925285 -587136616 403013849 1372702768
            -2004303261 -897581047 -1065314877 -338044736</internalNodes>
          <leafValues>
            -7.8345745801925659e-01 7.4572104215621948e-01</leafValues></_>
        <_>
          <internalNodes>
            0 -1 47 -747908097 1099958401 1896878291 1213259845
            -931020662 -645920768 -1065320293 1209516719</internalNodes>
          <leafValues>
            -9.1476756334304810e-01 6.4389854669570923e-01</leafValues></_></weakClassifiers></_>
    <!-- stage 11 -->
    <_>
      <maxWeakCount>3</maxWeakCount>
      <stageThreshold>-1.0404117107391357e+00</stageThreshold>
      <weakClassifiers>
        <_>
          <internalNodes>
            0 -1 52 -57716773 1426128928 16810847 1964180785 -2004123502
            -268205952 -993869109 -192416817</internalNodes>
          <leafValues>
            -7.9504132270812988e-01 6.1092150211334229e-01</leafValues></_>
        <_>
          <internalNodes>
            0 -1 35 -705043453 -140047954 327761 -4091579 -104756741
            -142537810 -92094325 -205147953</internalNodes>
          <leafValues>
            -8.0040895938873291e-01 6.2281376123428345e-01</leafValues></_>
        <_>
          <internalNodes>
            0 -1 4 956388347 1392525443 16843161 -780054453 1212876803
            159402120 939612171 -605034293</internalNodes>
          <leafValues>
            -8.5092431306838989e-01 6.1887258291244507e-01</leafValues></_></weakClassifiers></_>
    <!-- stage 12 -->
    <_>
      <maxWeakCount>2</maxWeakCount>
      <stageThreshold>-3.4505864977836609e-01</stageThreshold>
      <weakClassifiers>
        <_>
          <internalNodes>
            0 -1 38 -246427183 -963861302 1191330197 -803544061
            -473330772 -1367160568 -329221416 -72373270</internalNodes>
          <leafValues>
            -8.3362215757369995e-01 5.5763238668441772e-01</leafValues></_>
        <_>
          <internalNodes>
            0 -1 45 990974015 1430327305 50331781 -544129016 -1610071813
            -897351680 -528318038 2074868379</internalNodes>
          <leafValues>
            -9.0269106626510620e-01 5.2783495187759399e-01</leafValues></_></weakClassifiers></_>
    <!-- stage 13 -->
    <_>
      <maxWeakCount>3</maxWeakCount>
      <stageThreshold>-1.0299106836318970e+00</stageThreshold>
      <weakClassifiers>
        <_>
          <internalNodes>
            0 -1 48 1426187743 1430357293 268637147 -678096509
            -1694329924 -1107107328 -1467369333 -6297589</internalNodes>
          <leafValues>
            -7.6249998807907104e-01 7.2093021869659424e-01</leafValues></_>
        <_>
          <internalNodes>
            0 -1 9 -254774998 -619855032 68256155 -607301621 8626091
            -2008317822 -661288225 -69498709</internalNodes>
          <leafValues>
            -8.5942280292510986e-01 5.9808486700057983e-01</leafValues></_>
        <_>
          <internalNodes>
            0 -1 33 -888420903 -598388451 84771284 -150900559 -578244178
            -360146802 118147211 596634431</internalNodes>
          <leafValues>
            -8.6549562215805054e-01 6.1171650886535645e-01</leafValues></_></weakClassifiers></_>
    <!-- stage 14 -->
    <_>
      <maxWeakCount>3</maxWeakCount>
      <stageThreshold>-9.1340368986129761e-01</stageThreshold>
      <weakClassifiers>
        <_>
          <internalNodes>
            0 -1 27 -767296801 -207517679 1427180041 -721125295
            -1060982263 -1348894583 -536837669 -72384342</internalNodes>
          <leafValues>
            -7.8758168220520020e-01 6.2937062978744507e-01</leafValues></_>
        <_>
          <internalNodes>
            0 -1 55 250336731 12681216 268435481 361183234 -1996388167
            -1744699392 -1040021334 -1148485489</internalNodes>
          <leafValues>
            -8.3855569362640381e-01 6.3433223962783813e-01</leafValues></_>
        <_>
          <internalNodes>
            0 -1 24 1075315793 -606338863 84476537 -586674176 35515
            -626524032 620890778 -16646006</internalNodes>
          <leafValues>
            -7.0421862602233887e-01 7.6865625381469727e-01</leafValues></_></weakClassifiers></_>
    <!-- stage 15 -->
    <_>
      <maxWeakCount>3</maxWeakCount>
      <stageThreshold>-1.1162689924240112e+00</stageThreshold>
      <weakClassifiers>
        <_>
          <internalNodes>
            0 -1 8 1937229783 -108833852 1695613073 -1652080127
            146983103 -1651867647 1083392031 -815804342</internalNodes>
          <leafValues>
            -8.0398672819137573e-01 6.1486488580703735e-01</leafValues></_>
        <_>
          <internalNodes>
            0 -1 30 -2111927589 -1059864297 -1358900419 -645394343
            -787906173 -1476353920 1133021343 -137444721</internalNodes>
          <leafValues>
            -8.2733553647994995e-01 6.5019989013671875e-01</leafValues></_>
        <_>
          <internalNodes>
            0 -1 34 -203696901 -276630002 -629047159 -812841977
            -16455133 -1945747328 -914177909 1997914315</internalNodes>
          <leafValues>
            -9.0379828214645386e-01 5.6478244066238403e-01</leafValues></_></weakClassifiers></_>
    <!-- stage 16 -->
    <_>
      <maxWeakCount>2</maxWeakCount>
      <stageThreshold>-3.3515265583992004e-01</stageThreshold>
      <weakClassifiers>
        <_>
          <internalNodes>
            0 -1 20 -249857297 -3938904 1074053251 -33382005 -777462335
            -507019262 -931032629 -72122150</internalNodes>
          <leafValues>
            -8.2956522703170776e-01 5.4179567098617554e-01</leafValues></_>
        <_>
          <internalNodes>
            0 -1 50 -111433532 -203849207 1107313009 1359302913
            -502693729 -400506877 -1979529077 -5253857</internalNodes>
          <leafValues>
            -8.7694835662841797e-01 5.7680583000183105e-01</leafValues></_></weakClassifiers></_>
    <!-- stage 17 -->
    <_>
      <maxWeakCount>3</maxWeakCount>
      <stageThreshold>-8.7105464935302734e-01</stageThreshold>
      <weakClassifiers>
        <_>
          <internalNodes>
            0 -1 16 -513879133 -711605483 8389009 -728652605 -2119652725
            -936851456 -2071789425 -874544273</internalNodes>
          <leafValues>
            -8.2534247636795044e-01 5.7324838638305664e-01</leafValues></_>
        <_>
          <internalNodes>
            0 -1 40 -1138833697 -233230067 353960155 -40820498
            -1878023512 -108822398 -875885846 -7738693</internalNodes>
          <leafValues>
            -7.5556975603103638e-01 6.6310936212539673e-01</leafValues></_>
        <_>
          <internalNodes>
            0 -1 31 -638837444 -643074 -5279745 -6079492 -21430344
            -32769 -134645767 -1086619654</internalNodes>
          <leafValues>
            -6.8873333930969238e-01 7.9342925548553467e-01</leafValues></_></weakClassifiers></_>
    <!-- stage 18 -->
    <_>
      <maxWeakCount>2</maxWeakCount>
      <stageThreshold>-2.8028452396392822e-01</stageThreshold>
      <weakClassifiers>
        <_>
          <internalNodes>
            0 -1 2 -263722085 -786857662 1342312855 -653687867
            1342408715 281313280 360670 -80359101</internalNodes>
          <leafValues>
            -7.6076555252075195e-01 6.4575648307800293e-01</leafValues></_>
        <_>
          <internalNodes>
            0 -1 14 -643965761 -745389945 -2076090476 -1333459508
            1628074975 1938764249 -82884206 -1612869112</internalNodes>
          <leafValues>
            -9.2604100704193115e-01 4.9598401784896851e-01</leafValues></_></weakClassifiers></_>
    <!-- stage 19 -->
    <_>
      <maxWeakCount>3</maxWeakCount>
      <stageThreshold>-1.0887287855148315e+00</stageThreshold>
      <weakClassifiers>
        <_>
          <internalNodes>
            0 -1 29 -671023649 -1817103086 940917531 -682307397
            -2138772802 -629078868 -456989509 -211860984</internalNodes>
          <leafValues>
            -8.3944153785705566e-01 5.5076920986175537e-01</leafValues></_>
        <_>
          <internalNodes>
            0 -1 53 -669648161 -58175485 268435729 -267375849
            -1031233393 -1875836928 -1677469233 -255792422</internalNodes>
          <leafValues>
            -8.6731994152069092e-01 5.3561896085739136e-01</leafValues></_>
        <_>
          <internalNodes>
            0 -1 26 683861489 -1714617257 495098333 486606169 604111103
            -1392175092 1780050156 -16226229</internalNodes>
          <leafValues>
            -7.7217805385589600e-01 6.6970068216323853e-01</leafValues></_></weakClassifiers></_></stages>
  <features>
    <_>
      <rect>
        0 0 7 4</rect></_>
    <_>
      <rect>
        0 0 14 6</rect></_>
    <_>
      <rect>
        0 11 2 5</rect></_>
    <_>
      <rect>
        0 27 2 1</rect></_>
    <_>
      <rect>
        1 24 2 2</rect></_>
    <_>
      <rect>
        2 6 14 4</rect></_>
    <_>
      <rect>
        2 9 7 7</rect></_>
    <_>
      <rect>
        2 11 9 6</rect></_>
    <_>
      <rect>
        2 14 8 4</rect></_>
    <_>
      <rect>
        2 17 7 4</rect></_>
    <_>
      <rect>
        2 21 9 3</rect></_>
    <_>
      <rect>
        3 4 13 5</rect></_>
    <_>
      <rect>
        3 5 9 4</rect></_>
    <_>
      <rect>
        3 7 4 7</rect></_>
    <_>
      <rect>
        3 15 15 4</rect></_>
    <_>
      <rect>
        4 8 4 7</rect></_>
    <_>
      <rect>
        4 11 4 6</rect></_>
    <_>
      <rect>
        4 14 12 5</rect></_>
    <_>
      <rect>
        4 16 5 4</rect></_>
    <_>
      <rect>
        4 20 11 1</rect></_>
    <_>
      <rect>
        5 3 13 6</rect></_>
    <_>
      <rect>
        5 19 7 1</rect></_>
    <_>
      <rect>
        6 9 7 6</rect></_>
    <_>
      <rect>
        6 16 13 4</rect></_>
    <_>
      <rect>
        9 18 7 1</rect></_>
    <_>
      <rect>
        10 13 8 5</rect></_>
    <_>
      <rect>
        10 17 7 2</rect></_>
    <_>
      <rect>
        11 5 6 3</rect></_>
    <_>
      <rect>
        11 9 13 3</rect></_>
    <_>
      <rect>
        12 0 5 4</rect></_>
    <_>
      <rect>
        12 7 6 3</rect></_>
    <_>
      <rect>
        12 19 5 1</rect></_>
    <_>
      <rect>
        13 1 10 6</rect></_>
    <_>
      <rect>
        14 0 10 4</rect></_>
    <_>
      <rect>
        14 2 10 6</rect></_>
    <_>
      <rect>
        14 5 8 4</rect></_>
    <_>
      <rect>
        15 5 4 3</rect></_>
    <_>
      <rect>
        17 0 3 5</rect></_>
    <_>
      <rect>
        17 15 7 4</rect></_>
    <_>
      <rect>
        19 15 10 5</rect></_>
    <_>
      <rect>
        19 17 10 4</rect></_>
    <_>
      <rect>
        20 20 9 2</rect></_>
    <_>
      <rect>
        21 12 6 6</rect></_>
    <_>
      <rect>
        22 4 9 5</rect></_>
    <_>
      <rect>
        22 12 5 6</rect></_>
    <_>
      <rect>
        22 27 2 1</rect></_>
    <_>
      <rect>
        24 14 8 5</rect></_>
    <_>
      <rect>
        25 0 6 9</rect></_>
    <_>
      <rect>
        28 12 7 6</rect></_>
    <_>
      <rect>
        30 9 6 7</rect></_>
    <_>
      <rect>
        33 12 5 6</rect></_>
    <_>
      <rect>
        41 2 3 6</rect></_>
    <_>
      <rect>
        41 13 3 5</rect></_>
    <_>
      <rect>
        44 10 2 4</rect></_>
    <_>
      <rect>
        44 12 2 6</rect></_>
    <_>
      <rect>
        46 27 1 1</rect></_>
    <_>
      <rect>
        47 27 1 1</rect></_></features></cascade>
</opencv_storage>
